-0.531856669141234
-0.8076060925457207
0.29243528501472094
0.38650769813370106
-0.7978267857686382
0.9017425628922766
0.27021852760370313
0.07524635159738653
3.3381662799015143E-4
-0.23610622718753846
-0.7215157585252951
-0.37286278068868983
-0.11227104999511603
-0.5914751822010514
0.4501037082535247
-0.7847236195505126
-0.24209950741486863
-0.3331723803200396
0.7552452252160932
0.1500433906371183
0.18144925062715078
-0.8271482457155702
-0.36992788623804423
-0.5017756157771724
-0.6616146827960018
-0.802707676400561
-0.650043660824063
0.5688300367370261
-0.04284315151492766
-0.2839826288746745
-0.34243491634925144
-0.2855202053982703
0.5441420714292977
-0.3339827761150053
0.41055574696555525
0.4678954118107802
-0.446602064951565
-0.6154737268436793
-0.24739075394672333
-0.37291243122037215
-0.8127091422853328
0.700335734848374
0.14153387659185968
0.7837927526278731
-0.5040276201561238
-0.026538647072302822
-0.8430747590879505
-0.6991673922331985
-0.48182293094089057
-0.3971153626954734
0.03588947285354428
0.7898513500944753
0.1260767438724873
-0.9277835822862239
0.3638216233788399
-0.013260497345852381
-0.6926878969666871
-0.577032792614997
0.8842225930912634
-0.9615599576484058
0.03816905653193387
0.6505192097072653
-0.3093636349851777
0.19764417949670154
-0.7009715469597388
0.839733387940799
0.9133559296931261
-0.6377853099069314
0.928601209993447
-0.7454304264006538
0.7440433114719694
-0.7496131268600039
-0.6842223121784476
-0.1967745707611238
0.1082160945764095
-0.0746892821265524
0.7308508256160068